solver_type L2R_L2LOSS_SVC_DUAL
nr_class 7
label 0 1 2 3 4 5 6
nr_feature 624
bias -1
w
-0.01121222021500384 -0.0975024807064416 -0.04075459285691588 -0.1193277579434845 -0.04572240668087943 -0.0753533621137706 0.1960863052682763 
0 -0.08447672753005492 -0.02627736986577026 -0.009065878407083526 -0.05824614651363226 0 0.09858907664542695 
0 0 -0.006073470973457952 -0.007959345168823156 -0.1093679375294096 0 0.1496775631596065 
-0.1132893271941408 0 -0.01292923311373751 -0.03187625488436897 0 0 0.1692281827397412 
-0.1132893271941408 0 -0.01292923311373751 -0.03187625488436897 0 0 0.1692281827397412 
0 -0.04804195415184469 -0.03238105102490039 -0.02436369348939052 -0.001653670463319126 0 0.09206900086350718 
-0.06933271608781644 -0.06291929896387036 -0.06566230027449879 -0.06349092848409978 -0.06291090538858549 -0.1163290606537782 0.04869322187679982 
0 -0.03416713325456595 -0.065226438892453 -0.03565911538491929 -0.05546469581542243 -0.05774719019033126 0.1440960133197989 
0 -0.03416713325456595 -0.065226438892453 -0.03565911538491929 -0.05546469581542243 -0.05774719019033126 0.1440960133197989 
0 -0.03416713325456595 -0.065226438892453 -0.03565911538491929 -0.05546469581542243 -0.05774719019033126 0.1440960133197989 
-0.06933271608781644 -0.06291929896387036 -0.06566230027449879 -0.06349092848409978 -0.06291090538858549 -0.1163290606537782 0.04869322187679982 
-0.01098607757301446 0 0 0 -0.01256779486976925 0 0.08775649204162718 
-0.07723417666502511 -0.08415523501665925 -0.090982819584742 -0.09381654454871444 -0.09968349082044076 -0.1044351418346484 0.03035004623306855 
-0.07723417666502511 -0.08415523501665925 -0.090982819584742 -0.09381654454871444 -0.09968349082044076 -0.1044351418346484 0.03035004623306855 
-0.09482762875122697 -0.0007099206522677297 -0.008269280270465513 -0.03559327721531778 -0.1126222178744227 0 0.1992666430180052 
-0.1005625053781889 -0.09915117103158341 -0.08640366116079598 -0.06405875028966221 -0.1422765327656899 -0.07757529110386688 0.2024244637340031 
0 -0.0639185769217535 -0.07650438092298345 -0.05828479241631142 0 -0.004551673723595598 0.05235539414736914 
0 -0.0639185769217535 -0.07650438092298345 -0.05828479241631142 0 -0.004551673723595598 0.05235539414736914 
-0.05343962870231183 -0.03799544953719016 -0.021674589116703 -0.03122815967873331 -0.04854501030241325 -0.05842406096014768 0.07001475779323144 
-0.006042559346383047 -0.05791761554109694 -0.05541802746990653 -0.0392933543435966 -0.004836900445348244 -0.01059240834157103 0.04645992682116814 
-0.05343962870231183 -0.03799544953719016 -0.021674589116703 -0.03122815967873331 -0.04854501030241325 -0.05842406096014768 0.01448434567299169 
-0.02299131973840383 0 -0.01073147471096224 0 -0.02092263491114166 0 0.1560998031664349 
-0.02299131973840383 0 -0.01073147471096224 0 -0.02092263491114166 0 0.1560998031664349 
-0.2314916708809202 -0.249389856672541 -0.2113796091996252 -0.2666877722913096 -0.2018492534346941 -0.1703018036700366 0.4572767577915592 
-0.0873120113018174 -0.07948898268814517 -0.0842700635137161 -0.09214857082008854 -0.08946865811188363 -0.09289099382846369 0.03413422892558104 
-0.06933598375528409 -0.08438380657263177 -0.07014835280009092 -0.06130783961171715 -0.03969681973314938 0 0.1480632774572591 
0 0 0 0 0 0 0.03665200320108336 
-0.3888159208872782 -0.4438994855131099 -0.409075271053067 -0.3550627571972108 -0.3742218646105253 -0.3500448052012362 0.7628064127201631 
-0.2717633369597977 -0.1332182664853164 -0.1508047530727473 -0.1537742530188854 -0.2227822127088616 -0.02411898778134733 0.5650840898901296 
-0.06560436496972964 -0.07056916436529617 -0.08385912780496756 -0.06522427655856149 -0.1136834034676577 -0.1134781531887626 0.3257965323343903 
-0.1449182414370012 -0.05169988083247152 -0.04006428692930428 -0.08783116130460931 -0.05356058101912517 -0.02411898778134732 0.116202657715701 
0 0 -0.01796666696643917 0 -0.002784745372159642 0.04386644399799661 -0.02283913567461338 
-0.07903308868950487 0 -1.761828530288945e-19 0 0 0.05876679040964881 0 
-0.07274975106285786 -0.04589850689418028 -0.03890065563818325 -0.07646349668154852 -0.0437149449893366 0.04893902818045334 -0.02624925647686535 
-0.111970529918058 -0.08819258400626639 -0.06201155102707112 -0.04694298901501438 -0.08334355609297253 0.1311002477420035 -0.0714935907018921 
-0.0421808984873555 -0.01591272882135749 0 0 -0.01326919012263258 0.03792112760990926 -0.01329479187488256 
-0.02818650767076501 -0.02104665437312855 -0.0321355248554379 -0.05608318716537106 -0.01800421670511269 0.01722275685991734 -0.01995990885986249 
-0.04685718696138065 -0.03576548661159022 -0.04221033334770817 -0.06420348082148955 -0.0318875147940393 0.03889939308843685 -0.03189141037335894 
-0.2106343830024557 -0.02849591254132874 -0.0383938592160357 -0.03999285189868357 -0.01875116180103146 0.1369017600099231 -0.02997268657968463 
-0.006574898306159667 -0.004546623478216033 0 0 -0.0006811521429598923 0.008885136901157997 -0.02243226490105449 
0 0 0 0 0 0 0.05950715636585725 
0 -0.002087522086539034 0 0 0.01904238804108689 0 0 
-0.05057175666933019 -0.0358290367439393 -0.02227128778872258 -0.0212581919503907 0.02959224098849743 -0.02571183926694141 -0.02941597919401133 
0 -0.001696996193334887 -0.02304266452443652 -0.01748546736908025 0.003216498960478755 0 -0.007134857395411011 
0 -0.002087522086539034 0 0 0.01904238804108689 0 0 
-0.03049886710836947 -0.04879000771412345 -0.0720192420251386 -0.04626824989265223 0.03436964086518301 -0.05014159770707644 -0.07185566362842155 
-0.05057175666933019 -0.0358290367439393 -0.02227128778872258 -0.0212581919503907 0.02959224098849743 -0.02571183926694141 -0.02941597919401133 
-0.05057175666933019 -0.0358290367439393 -0.02227128778872258 -0.0212581919503907 0.02959224098849743 -0.02571183926694141 -0.02941597919401133 
0 -0.01296407936880279 -0.01702790510216287 -0.002551420712897178 0.02691641589128242 0 -0.01873595982419669 
-0.03353448881225295 -0.04101728420962842 -0.05643079713246667 -0.03928075595244926 0.05106368070545568 -0.04214042899476111 -0.05780400776922504 
-0.1237022183074989 0 0 -0.02727615452177231 0.154695994236744 -0.004935412650560661 -0.01299235853477625 
-0.05343962870231183 -0.03799544953719016 -0.021674589116703 -0.03122815967873331 -0.04854501030241325 -0.05842406096014768 0.01448434567299169 
-0.01186621610414168 -0.0210244185682181 -0.03860585122221218 -0.02127392729469497 0.03211009801502177 -0.02319364080988653 -0.03937768271511056 
-0.1237022183074989 0 0 -0.02727615452177231 0.154695994236744 -0.004935412650560661 -0.01299235853477625 
-0.1237022183074989 0 0 -0.02727615452177231 0.154695994236744 -0.004935412650560661 -0.01299235853477625 
-0.02005743854222925 -0.04619892095475855 -0.03212304891013688 -0.01325293439329794 0.04203031753298513 -0.01965058409973866 -0.04901560754561643 
-0.02005743854222925 -0.04619892095475855 -0.03212304891013688 -0.01325293439329794 0.04203031753298513 -0.01965058409973866 -0.04901560754561643 
-0.2838234161405329 -0.1318103301188544 -0.1604637246425825 -0.1275262753355828 -0.1226255027793278 0.2732561255408537 -0.1251897427954047 
-0.02005743854222925 -0.04619892095475855 -0.03212304891013688 -0.01325293439329794 0.04203031753298513 -0.01965058409973866 -0.04901560754561643 
-0.1668700680607036 -0.1404172772901245 -0.1065758975837569 -0.1393315725789665 0.06086962755157484 -0.09088470310125313 0.04806473320288503 
-0.02005743854222925 -0.04619892095475855 -0.03212304891013688 -0.01325293439329794 0.04203031753298513 -0.01965058409973866 -0.04901560754561643 
-0.03353448881225295 -0.04101728420962842 -0.05643079713246667 -0.03928075595244926 0.05106368070545568 -0.04214042899476111 -0.05780400776922504 
-0.01186621610414168 -0.0210244185682181 -0.03860585122221218 -0.02127392729469497 0.03211009801502177 -0.02319364080988653 -0.03937768271511056 
0 0 -0.02316491843021175 0 0.05611925628825777 -0.01178412848790226 0 
0 0 -0.02316491843021175 0 0.05611925628825777 -0.01178412848790226 0 
0 -0.02355143549875812 -0.03731755930075373 -0.01015133681999839 0.03779112184040968 -0.004720349445902782 -0.03575487110159125 
-0.06886567222300737 -0.05331683045697024 -0.05560999835105901 -0.06360143383937761 0.09186569330575739 -0.07574037490963551 -0.06401217679885469 
-0.1274873024727012 -0.03882483853777251 -0.05624598308341438 -0.07231548627609266 0.15975935234601 -0.003568493444709631 -0.05300304592967309 
-0.09117778400526064 -0.07900813350861266 -0.07476147364459911 -0.07608048833023957 0.0533462739038631 -0.08232735081205503 -0.07890044641390713 
0 -0.01296407936880279 -0.01702790510216287 -0.002551420712897178 0.02691641589128242 0 -0.01873595982419669 
-0.1274873024727012 -0.03882483853777251 -0.05624598308341438 -0.07231548627609266 0.15975935234601 -0.003568493444709631 -0.05300304592967309 
-0.0814467370463412 -0.01878814787242659 -0.05783253073113521 -0.06407765071158308 0.1690237221255802 -0.02908870651278525 -0.08518534753349613 
-0.09117778400526064 -0.07900813350861266 -0.07476147364459911 -0.07608048833023957 0.0533462739038631 -0.08232735081205503 -0.07890044641390713 
-0.03914073903276605 0 0 -0.01041612183694682 0.1448152878409148 0 -0.04380044200106066 
-0.03601750038843192 -0.05746530919410708 -0.04162629006638787 -0.02876881717797682 0.05461065540433822 -0.03377133567152971 -0.04352475403551577 
-0.1241012505861136 -0.1362064419755522 -0.1746776980706999 -0.1207757801202547 0.1632358562798266 -0.1319947458163383 -0.1849351907824755 
-0.03601750038843192 -0.05746530919410708 -0.04162629006638787 -0.02876881717797682 0.05461065540433822 -0.03377133567152971 -0.04352475403551577 
-0.05475267388297411 0 0 0 0.07391582647226989 0 -0.00766755397383187 
-0.0873120113018174 -0.07948898268814517 -0.0842700635137161 -0.09214857082008854 -0.08946865811188363 -0.09289099382846369 0.03413422892558104 
-0.01024191066045095 -0.02560813812226088 -0.01352544516825497 -0.006186895962565393 0.03402500785704826 -0.04269048774869459 -0.008904932284186116 
0 -0.02727139526915515 -0.02502067040280127 -0.0002987107911137548 0.03321357236103985 -1.618832670375463e-05 -0.01302833936958139 
-0.01024191066045095 -0.02560813812226088 -0.01352544516825497 -0.006186895962565393 0.03402500785704826 -0.04269048774869459 -0.008904932284186116 
0 -0.01296407936880279 -0.01702790510216287 -0.002551420712897178 0.02691641589128242 0 -0.01873595982419669 
-0.1127323912892021 -0.04006182872281568 -0.03299327645483393 -0.04197795982602257 0.1283328253057809 0 -0.04952412253190603 
-0.03536787721958158 -0.04431911558818558 -0.06270452760430749 -0.04319224374743951 0.0563251822619403 -0.0458380382554636 -0.06457288688788013 
-0.05009888073875192 -0.03239700455853298 -0.02673102253002529 -0.03158469688706911 0.09875321486320408 -0.03571153103635459 -0.02277551111516512 
-0.01024191066045095 -0.02560813812226088 -0.01352544516825497 -0.006186895962565393 0.03402500785704826 -0.04269048774869459 -0.008904932284186116 
-0.009449217501064037 -0.04878249603765872 -0.07158852209399735 -0.0323960740199157 0.0722246646747302 -0.04410672151431164 -0.05071830124005682 
0 -0.02727139526915515 -0.02502067040280127 -0.0002987107911137548 0.03321357236103985 -1.618832670375463e-05 -0.01302833936958139 
-0.06504291256842187 -0.0269531698896028 -0.01932389260068735 -0.01166355283764545 -0.02377416945989834 0.04794193021630089 -0.05701996445705047 
0 -0.02727139526915515 -0.02502067040280127 -0.0002987107911137548 0.03321357236103985 -1.618832670375463e-05 -0.01302833936958139 
-0.0865230826289143 0 0 0 0 0 0.09351864382574523 
0 -0.01296407936880279 -0.01702790510216287 -0.002551420712897178 0.02691641589128242 0 -0.01873595982419669 
-0.05009888073875192 -0.03239700455853298 -0.02673102253002529 -0.03158469688706911 0.09875321486320408 -0.03571153103635459 -0.02277551111516512 
-0.05475267388297411 0 -0.005935420978231253 -0.007778429253135805 -0.0329661778370962 0 0.1386078381751568 
-0.05009888073875192 -0.03239700455853298 -0.02673102253002529 -0.03158469688706911 0.09875321486320408 -0.03571153103635459 -0.02277551111516512 
-0.05009888073875192 -0.03239700455853298 -0.02673102253002529 -0.03158469688706911 0.09875321486320408 -0.03571153103635459 -0.02277551111516512 
-0.03669530661564765 -0.07809104032739513 -0.08386586459421776 -0.06714065550903012 0.06448483398856604 -0.06094375434904058 -0.08060383273172517 
-0.03669530661564765 -0.07809104032739513 -0.08386586459421776 -0.06714065550903012 0.06448483398856604 -0.06094375434904058 -0.08060383273172517 
-0.04567009826327997 -0.04025251373602108 -0.01816339580840838 -0.03463628475747842 0.1207793152847501 -0.01162711998086915 -0.04362211588302817 
-0.04567009826327997 -0.04025251373602108 -0.01816339580840838 -0.03463628475747842 0.1207793152847501 -0.01162711998086915 -0.04362211588302817 
-0.04567009826327997 -0.04025251373602108 -0.01816339580840838 -0.03463628475747842 0.1207793152847501 -0.01162711998086915 -0.04362211588302817 
-0.04671520374047625 -0.09276218844198185 -0.07275681607624927 -0.1273045837052555 0.144088299098904 -0.1081807072618131 -0.07783148985791544 
-0.04567009826327997 -0.04025251373602108 -0.01816339580840838 -0.03463628475747842 0.1207793152847501 -0.01162711998086915 -0.04362211588302817 
-0.07993864942573507 -0.05396234499356363 -0.04194179758779788 -0.05311404683551002 0.1213829357267452 -0.06827456762327666 -0.05036243887853035 
-0.04671520374047625 -0.09276218844198185 -0.07275681607624927 -0.1273045837052555 0.144088299098904 -0.1081807072618131 -0.07783148985791544 
0 -0.002087522086539034 0 0 0.01904238804108689 0 0 
-0.1356070470069011 -0.1361626959115946 -0.1354991419477424 -0.1376677282403299 0.135493083717945 -0.1370355670646931 -0.1345850365531521 
-0.1356070470069011 -0.1361626959115946 -0.1354991419477424 -0.1376677282403299 0.135493083717945 -0.1370355670646931 -0.1345850365531521 
0 -0.01861117455263644 -0.001186589107654308 0 0.03504139546975479 -0.01573707612388446 -0.01510852515328234 
0 -0.01861117455263644 -0.001186589107654308 0 0.03504139546975479 -0.01573707612388446 -0.01510852515328234 
0 -0.01296407936880279 -0.01702790510216287 -0.002551420712897178 0.02691641589128242 0 -0.01873595982419669 
-0.07961195647869242 -0.06724335773212353 -0.07861462302321402 -0.08006672854304547 0.115652318582534 -0.09436636634373621 -0.08395300443456886 
0 -0.01861117455263644 -0.001186589107654308 0 0.03504139546975479 -0.01573707612388446 -0.01510852515328234 
-0.07961195647869242 -0.06724335773212353 -0.07861462302321402 -0.08006672854304547 0.115652318582534 -0.09436636634373621 -0.08395300443456886 
0 -0.01861117455263644 -0.001186589107654308 0 0.03504139546975479 -0.01573707612388446 -0.01510852515328234 
-0.03049886710836947 -0.04879000771412345 -0.0720192420251386 -0.04626824989265223 0.03436964086518301 -0.05014159770707644 -0.07185566362842155 
-0.1181287296592705 -0.05375625284401322 -0.06990726567831879 -0.05998898903706634 0.1093600058375738 -0.04761188767080892 -0.06087636379413204 
-0.006042559346383047 -0.05791761554109694 -0.05541802746990653 -0.0392933543435966 -0.004836900445348244 -0.01059240834157103 0.04645992682116814 
-0.09269970015308902 -0.02544825648430247 -0.021491145716455 -0.04887809578505767 0.1219112957675706 0 -0.02725565855379717 
-0.1463356308328753 -0.1189018214945602 -0.153202210724757 -0.1416899033842831 0.2548260173945768 -0.1782848275764176 -0.145974146486272 
-0.06933598375528409 -0.08438380657263177 -0.07014835280009092 -0.06130783961171715 -0.03969681973314938 0 0.1480632774572591 
-0.09269970015308902 -0.02544825648430247 -0.021491145716455 -0.04887809578505767 0.1219112957675706 0 -0.02725565855379717 
-0.1586989443749791 -0.03615557485205945 -0.05893982246190319 -0.07936968213052478 0.2048086700983106 -0.04837969420741176 -0.06867935357806043 
-0.1526176294391765 -0.05775466132703341 -0.05237358791673855 -0.09053049839663341 0.1677603429896642 -0.02463455944541016 -0.07164682977975284 
-0.09269970015308902 -0.02544825648430247 -0.021491145716455 -0.04887809578505767 0.1219112957675706 0 -0.02725565855379717 
-0.1181287296592705 -0.05375625284401322 -0.06990726567831879 -0.05998898903706634 0.1093600058375738 -0.04761188767080892 -0.06087636379413204 
-0.1526176294391765 -0.05775466132703341 -0.05237358791673855 -0.09053049839663341 0.1677603429896642 -0.02463455944541016 -0.07164682977975284 
-0.1526176294391765 -0.05775466132703341 -0.05237358791673855 -0.09053049839663341 0.1677603429896642 -0.02463455944541016 -0.07164682977975284 
-0.2268431093904141 -0.08170334841111286 -0.0507128240094951 -0.08346672354615559 0.2564666206401855 0 -0.09888420420831431 
-0.114110718101212 -0.04164151968829718 -0.01771954755466117 -0.04148876372013303 0.1281337953344047 0 -0.04936008167640828 
-0.07993128864891592 -0.0779166736702272 -0.08970732218616227 -0.08144040260796136 0.1222613136832507 -0.08137151106464197 -0.1332789855530078 
-0.09117778400526064 -0.07900813350861266 -0.07476147364459911 -0.07608048833023957 0.0533462739038631 -0.08232735081205503 -0.07890044641390713 
0 -0.04103874629173399 -0.02133222823938695 -0.1291197230201878 0.2083987648487505 0 -0.03253490890816502 
-0.09177100703637241 -0.05824112228428111 -0.05220847039507227 -0.03347773172092028 0.1524476200519737 0 -0.04817629170065748 
-0.09288628844066707 0.1295467614036566 -0.07803924298952174 -0.07197799774139808 -0.09001144104483695 -0.08770232356698718 -0.07743539158879317 
-0.03200979558737861 0.07202078285090156 -0.07916646706449569 -0.1478085878637706 -0.04673202350816547 -0.06189160136536541 -0.08683678758398107 
0 0 -0.02966772336841159 0 -0.005503645873847953 0.07586810525562585 -0.03916597752786453 
-0.03947946181468768 0.07802179179772548 -0.01268800680425282 -0.001197898273800334 -0.04319907253392056 0 -0.02105541733284773 
0 0.0837300082316423 0 0 0 0 0 
0 0.0837300082316423 0 0 0 0 0 
-0.05597799470700123 -0.05743780552807884 0.2129953988363464 -0.06575651394793285 -0.1494642766917588 -0.08392801650424694 -0.06635787832204677 
-0.01098607757301446 0 0 0 -0.01256779486976925 0 0.08775649204162718 
-0.4105415405533639 -0.2918398678969311 -0.2846544292747031 -0.3272370268051117 0.2460903645406297 -0.3545058350825213 -0.3889380948203391 
0 0.1036624398982524 -0.02142506404428617 -0.01442011325750212 -0.03344325136810843 0 -0.01902857759508831 
-0.08365134468290031 -0.06732791883847938 -0.1804368365812629 -0.09245094539224548 0.1459864310332766 -0.1159225481586763 -0.1381226968620621 
-0.007028044115383326 -0.01953127224520752 -0.01367473817457003 -0.007541277620222065 0.04548780557356501 -0.01992716648764847 -0.02938029945610418 
-0.3020043439409092 -0.1057592200588933 -0.1735525642366015 0.01771032657434196 -0.2625158056184425 -0.2395729830356929 -0.02644248469950017 
0 -0.05860544693644101 -0.02213980705262159 0.09715145645587231 -0.02485670362803882 0 -0.04281092229140331 
0 -0.001696996193334887 -0.02304266452443652 -0.01748546736908025 0.003216498960478755 0 -0.007134857395411011 
-0.007028044115383326 -0.01953127224520752 -0.01367473817457003 -0.007541277620222065 0.04548780557356501 -0.01992716648764847 -0.02938029945610418 
-0.04065326100846042 0.06280133713383342 -0.02753380723805931 -0.0102437389510616 -0.04276692502512019 0 -0.01468483821162378 
-0.09482762875122697 -0.0007099206522677297 -0.008269280270465513 -0.03559327721531778 -0.1126222178744227 0 0.1992666430180052 
-0.04065326100846041 0.1921602052911852 -0.05317124523421697 -0.0466376140880317 -0.0427669250251202 -0.009442061539849634 -0.05972753508067982 
-0.04705587735777262 -0.08887097764715512 -0.1594174781883695 -0.1182679014825342 -0.08898148898649889 0.2415486439150815 -0.1674396146044939 
-0.08071775062167144 -0.006879744203185031 0 0.07523991775687308 0 0 0 
-0.1838597123442794 -0.1271002741266723 -0.1320971904560119 -0.1455966824005506 -0.101161718423295 -0.1044351418346484 0.2719251823907706 
-0.07913822209909811 0.1392868198212539 -0.03954825451584749 -0.01119104463890211 -0.08491979027215124 0 -0.03538102034730056 
0.003068143591525912 0 -0.01537956756450768 -0.004052930696341433 -0.002732926339246161 0.03782768348001106 -0.01993696217777752 
-0.1366324157160876 0.4362289643168672 -0.03403814910842503 -0.1807308878482532 -0.1193363898296087 -0.06189160136536541 -0.140867607302581 
-0.06372935024781015 0.004863427554883231 -0.05914083160132234 -0.07243319281718107 -0.05634922693983691 -0.0737051498218031 -0.05079547107065163 
-0.04766484933241715 0.07753793149086553 -0.04160231725823807 -0.04647614451971493 -0.07516702537751654 -0.09010270423707573 -0.06002991242885423 
-0.04766484933241715 0.07753793149086553 -0.04160231725823807 -0.04647614451971493 -0.07516702537751654 -0.09010270423707573 -0.06002991242885423 
-0.007028044115383326 -0.01953127224520752 -0.01367473817457003 -0.007541277620222065 0.04548780557356501 -0.01992716648764847 -0.02938029945610418 
0 0.1036624398982524 -0.02142506404428617 -0.01442011325750212 -0.03344325136810843 0 -0.01902857759508831 
-0.07502047762516403 0.222458259877868 -0.05673040503957921 -0.03368403099324379 -0.08408637207406648 -0.01554593814157696 -0.07576821239738768 
-0.3717959813226763 -0.2394221539444581 -0.1367252659802159 -0.1652328764754579 0.2587091245924679 -0.2041677442199213 -0.2826922168328622 
-0.001447411110071999 0 0 0 0 0 0.08832653004196908 
-0.05597799470700123 -0.05743780552807884 0.2129953988363464 -0.06575651394793285 -0.1494642766917588 -0.08392801650424694 -0.06635787832204677 
-0.2258898373716101 0.3599662772055488 -0.2991405476894559 -0.2809553825934533 -0.2347734245114179 -0.2386003038958885 -0.2974853735611255 
-0.1111111111111111 -0.1111111111111111 0.1111111111111111 -0.1111111111111111 -0.1111111111111111 -0.1111111111111111 -0.1111111111111111 
0 0 -0.002204884728020821 -0.01283346057521405 -0.01930145030212418 0 -0.02078786371131704 
0 -0.01995719223361199 -0.009755642604906934 0 0 -0.06435298339126144 0 
0.01658943041046937 0 0 0 0 0 0 
-0.001447411110071999 0 0 0 0 0 0.05412390691080771 
0.03486539253468138 0 0 -0.01514713221484762 -0.01392259200970105 0 0 
0 0.09184964110932339 -0.01587578110718176 0 -0.08293939767162783 0 -0.02045176952250845 
0.06610749683372344 0 0 -0.01504352880694397 -0.004921567881620187 -0.007616329326611953 0 
0.06857962912140549 -0.01885687949165761 -0.0480037511966997 -0.02036799114921418 -0.04984410005332231 -0.04004599335886842 -0.01508163731675878 
0.006443558312441872 0 0 0 -0.02780033763148852 0 0 
-0.06372935024781015 0.004863427554883231 -0.05914083160132234 -0.07243319281718107 -0.05634922693983691 -0.0737051498218031 -0.05079547107065163 
-0.08417997274310733 -0.06756481343306343 -0.0723002934813059 -0.07992064288524969 -0.07409561816438466 -0.08244985481442796 0.03450067112396157 
0 0 0 0 0 0 0 
0 -0.01296407936880279 -0.01702790510216287 -0.002551420712897178 0.02691641589128242 0 -0.01873595982419669 
-0.1862132948496719 -0.1830609560456101 -0.1870051483135454 -0.1731963943908099 0.1871352394551976 -0.1777865976118417 -0.1924487519845535 
-0.03947946181468768 0.1697511308401643 -0.01268800680425282 -0.001197898273800334 -0.04615228797319241 0 -0.02105541733284773 
-0.03353448881225295 -0.04101728420962842 -0.05643079713246667 -0.03928075595244926 0.05106368070545568 -0.04214042899476111 -0.05780400776922504 
0.07147776664791169 -0.01965376088031069 -0.05003236340324778 -0.02122873128801816 -0.04640830585508637 -0.04173831508219093 -0.01571897904095327 
0 0.03600474704679115 -0.05672187476386129 -0.03051579102533744 -0.003330041593753168 0 -0.04167594946045515 
-0.04214665982483769 -0.002099999616374289 -0.006113755458952846 0.03516041941410968 -0.01419732554233854 -0.008393559356387106 -0.003064389594670276 
0.01658943041046937 0 0 0 0 0 0 
0.07077481528075301 -0.009265556013078704 -0.010633697543443 -0.07234171435130443 -0.02655106376868726 -0.006925878119252185 -0.02499239888512497 
-0.007028044115383326 -0.01953127224520752 -0.01367473817457003 -0.007541277620222065 0.04548780557356501 -0.01992716648764847 -0.02938029945610418 
-0.09668601049576048 -0.2691726204659208 -0.1389230774911488 -0.2320340161768166 0.106275148308563 -0.2545543529940462 -0.1502787489731539 
-0.1856935724873552 -0.09088316075753496 0.209499298291952 -0.1006624642557331 -0.05671364536617218 0 0.04441413080828681 
-0.1647147230902064 -0.1612349553405874 -0.1619300165320451 -0.153833871986353 0.2431739680164866 -0.1857571948062072 -0.1908882750392939 
0.1208673722868503 0 0 0 0 -0.01395462308088478 0 
0 0.09750800377776811 0 -0.05027871186701958 -0.008420014468529715 -0.008014555063485527 -0.05159268578924583 
-0.2109121580932103 -0.1518413395085105 -0.1385014358947055 -0.1949194453551914 -0.1622123609024437 0.3060501195512231 -0.1293443941509677 
0.05060699852210906 -0.01797747196106811 -0.04845526838848054 -0.01941811156773181 -0.0424500950404002 0.01832242688396089 -0.03131250572213036 
0.1190737055729593 0 -0.001933320991484032 -0.01376046104800939 -0.04826411687672854 0 0 
-0.02525574639312184 -0.09780319609415378 0.1591705197378819 -0.08401575589553037 -0.03876201016194808 -0.06478977399662876 -0.1192093377103324 
0.01940124174885915 -0.006211776366279011 -0.04157142406673357 -0.01985697292787107 0 -0.08120770733173809 -0.01821449986219375 
-0.06633519858089199 -0.003972717398122588 -0.009627792362148963 -0.01465251947412782 0.09232138425282835 0 -0.03242724226188821 
-0.07993864942573507 -0.05396234499356363 -0.04194179758779788 -0.05311404683551002 0.1213829357267452 -0.06827456762327666 -0.05036243887853035 
-0.08417198273721883 -0.1012249591499253 -0.1019113052870265 -0.09602898226725901 0.1076485444421326 -0.09214633555140112 -0.08740398424644455 
-0.09177100703637241 -0.05824112228428111 -0.05220847039507227 -0.03347773172092028 0.1524476200519737 0 -0.04817629170065748 
0.2799487819764498 -0.04931668287924712 -0.1286553094407678 -0.125401001543266 -0.0698771634065681 -0.07012229282823144 -0.05732931197545584 
0.1061451759523926 -0.04269734715893025 -0.0383938592160357 -0.03999285189868358 -0.03966307088872778 -0.006174205721023568 -0.04569832033770218 
0 0 0 0 0 0 0 
0.08121168583884547 -0.003067741216504758 -0.01387787769748159 -0.08980806155925886 -0.02963604349028801 0 -0.02454654278000488 
0.1874613878538982 -0.07021803175265988 -0.06273902570907967 -0.1677242490846869 -0.1083291061366322 -0.02857834181978571 -0.09328408588888584 
-0.05597799470700123 -0.05743780552807884 0.2129953988363464 -0.06575651394793285 -0.1494642766917588 -0.08392801650424694 -0.06635787832204677 
0 0 0 -0.006925434209444652 -0.01729497590905031 0 -0.02041776910954149 
0.05060699852210906 -0.01797747196106811 -0.04845526838848054 -0.02911880479427845 -0.04928378967131389 0.01832242688396089 -0.03131250572213036 
0.1625855608090126 -0.004982851707934281 -0.001820550882634643 -0.09793257506064086 -0.03829014891437164 -0.04080241360520102 -0.01287257796605631 
0 0.1036624398982524 -0.02142506404428617 -0.01442011325750212 -0.03344325136810843 0 -0.01902857759508831 
0.03443587976706208 0 0 -0.008778666330475169 0 0 0 
0 0 0 -0.002846065140321037 0 0 0 
-0.1873167341745132 -0.001937465946065768 -0.005640569127696274 0.2914104973959897 -0.06648155274747303 -0.007743923042880813 -0.007894762694435755 
0.06295174016012903 0 0 -0.006860923310367207 0 0 0 
-0.007028044115383326 -0.01953127224520752 -0.01367473817457003 -0.007541277620222065 0.04548780557356501 -0.01992716648764847 -0.02938029945610418 
-0.0432634979125337 -0.01878814787242659 -0.05783253073113521 -0.05391633846313348 0.0277510506711177 -0.02908870651278525 -0.0424563957451074 
0 0 0 -0.002846065140321037 0 0 0 
0 0.02376609196927499 0 0 0 0 -0.0235878587946359 
0.1321138044621466 0 0 0 -0.00974905325660669 -0.007465632634555612 0 
0.1190737055729593 0 -0.001933320991484032 0 -0.04826411687672854 0 0 
-0.1276561584256418 0.00153294146787632 -0.06513573078892174 0.008512084573969418 0.0547732385169564 -0.05106115198606413 -0.02750785543240272 
-0.07993864942573507 -0.05396234499356363 -0.04194179758779788 -0.05311404683551002 0.1213829357267452 -0.06827456762327666 -0.05036243887853035 
-0.02925654962324472 0 0 0 0 0.04656960142704049 0 
0 0 -0.002204884728020821 -0.01283346057521405 -0.01930145030212418 0 -0.02078786371131704 
0.09265157068404507 0 0 -0.00446514763127476 -0.003388509686588047 -0.04808895347311912 0 
0.04894360643819456 0 0 -0.03392972144788685 -0.02127465022886373 0 0 
-0.09177100703637241 -0.05824112228428111 -0.05220847039507227 -0.03347773172092028 0.1524476200519737 0 -0.04817629170065748 
0.01175643297049105 0 0 -0.01198998408635684 0 0 0 
0.07147776664791169 -0.01965376088031069 -0.05003236340324778 -0.02122873128801816 -0.04640830585508637 -0.04173831508219093 -0.01571897904095327 
0.2242885539882762 -0.09849356598044384 -0.09991798302248979 -0.2519250538755418 -0.03751094071822324 -0.1523210573061694 -0.1427000473568145 
-0.0123948994969182 -0.01384078259699161 0.1318213222444018 0 -0.002019531687054163 0 -0.0004487517765428161 
0 0 0 0.05410019439432145 0 0 0 
-0.3609037314360697 -0.1062610137968676 -0.1269912000660992 0.4127819889126799 -0.05131035444036285 -0.1274080645863079 -0.1778294631581688 
0.04210614271137432 0 0 -0.02747445654505809 -0.01336858048259221 0 0 
-0.0325079462188616 0 0 0.1174837177664362 0 0 0 
0.2052126980049234 0 0 -0.06799192298417507 -0.03042830462280394 -0.1063625673863772 -0.0135761587641765 
0.1014118295558123 -0.1676247678736698 0.1963069280564355 -0.1099209376315264 -0.2695593352028438 -0.0640506086248971 -0.05010712460914347 
0.03466576960604198 0 0 -0.01118224784572642 -0.004644374657631557 0 0 
-0.04766484933241715 0.05766025339329207 -0.06328874387381388 -0.04647614451971493 -0.1008709538085488 -0.09010270423707573 -0.01266057365861578 
-0.006042559346383047 0.03181636761948105 -0.05541802746990653 -0.08556349534959432 -0.01258561242034549 -0.01796798697351004 -0.001019428908158488 
0.1062400750057112 -0.1075937125214621 -0.06975900135156712 -0.1101767777916285 -0.1056721389648619 -0.1416231861250639 -0.168471860496123 
0.2249970913249802 -0.1588090462831408 -0.1471648628855362 -0.1801689989758749 -0.1886707627932068 -0.1652320108083485 -0.1772540747266068 
0 0 0 -0.007960789228655516 -0.01767962760702413 0 -0.01999419381026805 
0 -0.05860544693644101 -0.02213980705262159 0.09715145645587231 -0.02485670362803882 0 -0.04281092229140331 
-0.007845153105268128 -0.05101297306552131 -0.02863219556276665 -0.02368559642135769 -0.02640115778050769 8.673617379884035e-19 0.1530359564476853 
0.03466576960604198 0 0 -0.01118224784572642 -0.004644374657631557 0 0 
0.03710537885053598 0 0 0 -0.0140001103301796 0 0 
0.1127900475316647 0 0 -0.003048037593206224 0 -0.01302206352963542 0 
-0.09923620928757436 -0.09915117103158343 -0.08640366116079598 -0.06405875028966221 -0.1422765327656899 -0.07757529110386686 0.1332863386275641 
-0.386877850262648 -0.09179296977513228 -0.3077036075408354 -0.05053995993064257 -0.3632938908322398 -0.4211688214403623 -0.1166150166435547 
0.0989357149125708 -0.07189964878194821 -0.1042259311860047 -0.1042330501466619 -0.07038221838523222 -0.09828747984106537 0.03704787143078757 
0 0 0 0 0 0 0 
0.2599233119831628 -0.1622160094002862 -0.1385655633365002 -0.1504013701434369 -0.2578922330866259 -0.05455497962837874 -0.2191235586821791 
0 0 0 0 0 0 0 
0.08787883238913961 0 0 -0.04252020188417527 0 -0.04080241360520102 -0.004415680363599439 
0.3329184863744356 -0.04377681316270632 -0.08510636687737561 -0.2207932189432704 -0.09588240489748165 -0.085111257369529 -0.0789843956559584 
-0.0660004929597981 0.3367204586475299 -0.0880185927402157 -0.1579547826285385 -0.065831706628322 -0.06779119443844221 -0.1325665338005185 
-0.02368202674141099 -0.04359590072578267 -0.06832199536475234 0.07238441586689608 -0.04062326937885746 -0.05355892606188626 -0.02791771152459441 
-0.09993617241175982 -0.01878814787242659 -0.05783253073113521 0.03526594352734361 0.0229991214618142 -0.02908870651278525 -0.04884207615176315 
-0.007845153105268128 -0.03059610499135573 -0.006357515942900249 -0.02368559642135769 0 0 0.1043817053985914 
0.1208673722868503 0 0 0 0 -0.01395462308088478 0 
-0.1149937679320754 0.0365380529308432 -0.02623373069485165 0.1011184539940962 -0.03154731002781035 -0.009661671329161476 -0.07736394290538622 
-0.01848170031960248 0.03700121337824998 -3.577867169202165e-18 0.1840587432967346 -0.07900320404265368 -8.673617379884035e-19 0 
-0.05009888073875192 -0.03239700455853298 -0.02673102253002529 -0.03158469688706911 0.09875321486320408 -0.03571153103635459 -0.02277551111516512 
0.09775751834934697 -0.03855016727326564 -0.06623970610956663 -0.1247086644439804 -0.03165762393922171 -0.01336317306459883 -0.08154014224357739 
0.1331107769850254 -0.07038806164098378 -0.06025787260985149 -0.1173893403777931 -0.1054451928098861 -0.03070226939248199 -0.09001018423778236 
-0.114110718101212 -0.04164151968829718 -0.01771954755466117 -0.04148876372013303 0.1281337953344047 0 -0.04936008167640828 
0.1561371296877138 -0.1886429312359756 -0.206950231707256 -0.3543626164473607 -0.2305514015152256 0.131294039539836 -0.2027964032116479 
-0.2954516842821342 -0.1655419694533047 -0.3139271529654773 -0.4053206263171396 -0.1097078658627762 -0.01134729402940972 -0.2180202044315909 
0 0.05324559137831044 0 -0.004533533050499915 -0.009800256967703135 0 0 
-0.02716978114335049 -0.06175684261101201 -0.04835315120130244 0.1093984880548157 -0.03661443194526189 -0.0348702553243076 -0.07291207729261846 
-0.5702923859617788 -0.2832065843467343 -0.3510185761836782 -0.361522915884164 -0.2535592053677375 0.5658759001106611 -0.3476335244452377 
-0.04214665982483769 -0.002099999616374289 -0.006113755458952846 0.03516041941410968 -0.01419732554233854 -0.008393559356387106 -0.003064389594670276 
-0.05387532637077978 -0.1266055553796086 -0.08376806744242819 -0.1260351433159747 -0.1041226844761029 -0.06941296594666747 0.1945854591622988 
-0.0133380857331453 0 -0.02426461065275381 -0.02689066330956093 -0.004169538437009962 0.07642502726924905 -0.005358585292209644 
-0.07906803680810101 -0.09088316075753496 0.2216680209847064 -0.07066120255991755 -0.05671364536617217 0 -0.1148598809945201 
-0.0946578986202623 0 -0.02218391082154931 0.1021813995555104 0 0 0 
0.05008572142259654 0.04417637629002557 0 -0.003761345433074365 -0.008130998798908192 -0.009410120958441535 0 
0 -0.04103874629173399 -0.02133222823938695 -0.1291197230201878 0.2083987648487505 0 -0.03253490890816502 
0 0.1388466449119166 -0.02563743799615766 -0.02952653088030952 -0.003027271584032027 -0.009442061539849634 -0.04504269686905604 
0.3053986849316979 -0.119607596959905 -0.2428461014854727 -0.2308836715431648 -0.06791093384628924 -0.2148258446609759 -0.1443133901412205 
0 0 0 0 0 0 0 
0.03486539253468138 0 0 -0.01514713221484762 -0.01392259200970105 0 0 
0.03234369718274208 -0.3771055476536848 -0.2824988498968177 -0.08849307952862979 -0.4211241152650008 -0.07797956168090152 -0.3612988705881671 
-0.06886567222300737 -0.05331683045697024 -0.05560999835105901 -0.06360143383937761 0.09186569330575739 -0.07574037490963551 -0.06401217679885469 
-0.1640371010087239 0.3131421795498791 -0.1770264383715525 -0.2172929426287287 -0.1727173901382793 -0.1440303262705906 -0.1935732469678321 
0.01658943041046937 0 0 0 0 0 0 
0.006443558312441872 0 0 0 -0.02780033763148852 0 0 
0.2376554234833926 -1.387778780781446e-17 -0.001933320991484032 -0.03257373065661816 -0.0635291578544574 0 -0.01025563723103894 
-0.04028992754676698 0 0 0 0 0.0408904373238578 0 
0.1439316196963252 0 0 0 0 -0.06507353583495271 0 
0 0.09750800377776811 0 -0.05027871186701958 -0.008420014468529715 -0.008014555063485527 -0.05159268578924583 
0.06295174016012903 0 0 -0.006860923310367207 0 0 0 
0.03190197179266108 0 0 -0.01029072077173019 -0.004274092599302568 0 0 
-0.03554101581047635 0.09690014546401937 -0.007342693542278572 0 -0.04088729954014589 0 -0.01481568240587349 
-0.007028044115383326 -0.01953127224520752 -0.01367473817457003 -0.007541277620222065 0.04548780557356501 -0.01992716648764847 -0.02938029945610418 
0.1258098422537568 -0.05688827397299084 -0.1273595142653843 -0.08893483594123998 -0.05126753967274437 -0.05877172542277809 -0.08089501855558712 
0 -0.08447672753005492 -0.02627736986577026 -0.009065878407083526 -0.05824614651363226 0 0.09858907664542695 
0 -0.02092885054504912 -0.02283324939993706 0 -0.02706320496353054 0 0.04987432670323514 
0 0 0 -0.03043010288768726 -0.01918224031167739 0 0 
-0.05475267388297411 0 0 0 0.07391582647226989 0 -0.00766755397383187 
-0.08686916122494701 -0.01149907078396523 -0.03887358888418766 -0.03912095593695078 0.1372143981071229 0 -0.06418106161998127 
0.3249510804457745 0 0 0 0 -0.1868270920111147 0 
0.01714621409751992 0.05481091639212968 -0.1247956959518939 -0.07957437516675839 -0.01490961351948953 -0.04405985811004397 -0.007424370970355058 
-0.3116269451685059 -0.06334801670718798 -0.0704353043416299 0.3175217095806854 -0.09182392972797042 -0.02408867106162853 -0.0788987846720192 
0.2515085890794238 -0.6139578511730104 -0.6641015071393639 -0.3150454992851243 -0.3891971705065533 -0.9200490829523282 -0.4874188696444552 
-0.0865230826289143 0 0 0 0 0 0.09351864382574523 
0.1126159848300438 0 0 -0.04749607848758788 -0.004614688437929643 -0.007141420727780394 -0.01051281215478136 
0 0 0 -0.01532753265959358 0 -0.004585761297055423 0 
-0.01190138963321429 -0.04885581910093266 -0.09737064870616265 -0.05104438585310829 0.06062710293323029 -0.04988906957267077 -0.07128252396322389 
-0.04997246812594175 0 0 -0.172043820865747 0.1669895927443346 0 -0.0008921143024692771 
0.3333389274119137 -0.05034852045760837 -0.0480300727679599 -0.177754462595542 -0.07645641543096096 -0.1632439189196879 -0.07519960483368915 
0.1460282822272397 -0.03354866764397782 -0.1030520475380637 -0.05141595026902665 -0.00753477613889358 -0.04579328949262829 -0.05283845399769444 
0 0.09184964110932339 -0.01587578110718176 0 -0.08293939767162783 0 -0.02045176952250845 
0 0.1036624398982524 -0.02142506404428617 -0.01442011325750212 -0.03344325136810843 0 -0.01902857759508831 
-0.09269970015308902 -0.02544825648430247 -0.021491145716455 -0.04887809578505767 0.1219112957675706 0 -0.02725565855379717 
-0.2258367357037643 -0.3384252765687357 -0.2287534942969313 -0.2404213961838969 -0.204675630420063 -0.07639833883368954 -0.1699239817410166 
-0.1071564720826091 0.1236639475912861 -0.07340670167616253 -0.06458878393803121 -0.1095287749850535 -0.07868659983336546 -0.07772710158141249 
0.07683254308231231 -0.05095806424236693 -0.1059699292824315 -0.1714605059485388 -0.07278485722554744 0.03296776503024908 -0.120064066144335 
0 0.04753632261612321 -0.03669970469304782 -0.03248613271944345 0 -0.01554593814157696 -0.03989711265866644 
-0.1720461834244565 -0.07860628562239551 -0.09774004315593057 -0.1160154629419805 0.01286087959556161 -0.08137151106464197 0.06028723660818135 
0.05980194456355765 -0.1683514505714262 -0.1718010372971319 -0.1664311284503277 0.1023646081422651 -0.1583416786674778 -0.1716404812888847 
-0.0205759415133315 0.03072862937425628 0 0.08176635131913439 -0.01696160237719906 0 -0.03400531787386932 
-0.01002580692877535 -0.06241845191457523 0.1969575122646664 -0.06383198505171117 -0.0008965267712488264 -0.05532704077658096 -0.06446987955745082 
-0.06633519858089199 -0.003972717398122588 -0.009627792362148963 -0.01465251947412782 0.09232138425282835 0 -0.03242724226188821 
0 0 -0.006073470973457952 -0.007959345168823156 -0.1093679375294096 0 0.1496775631596065 
0.04894360643819456 0 0 -0.03392972144788685 -0.02127465022886373 0 0 
-0.06548601486318953 -0.1046114068081147 -0.1124547288115973 -0.07421407751761867 0.08741804925036933 -0.08294683677905071 -0.1141353050252433 
-0.1239004513460959 0.1327527592496943 -0.1547433162624434 -0.2151891472882539 -0.1352899116938044 -0.1476688485634843 -0.1615712077317621 
0.03433598646671181 0 0 -0.009489320364088033 0 0 0 
-0.01098607757301446 0 0 0 -0.01256779486976925 0 0.08775649204162718 
0.1235129183057651 -0.02207701382373739 -0.02430418014059322 -0.1069154211977648 0.0118856122155976 -0.02220978389028956 -0.06836499701877968 
-0.07946980417043291 -0.1045859913746663 -0.155022462559504 -0.1020146391709327 0.1371196086945611 -0.1093030963252097 -0.1589745007525303 
-0.04887279369593718 -0.04025453652608033 -0.02755448016038415 -0.03666563461604971 0.05645157183427911 -0.01866014466088649 -0.02595241650944845 
-0.1674904062980359 -0.1100571180695929 -0.1620318933908172 -0.1291137163694876 0.3445813569171505 -0.1309268459353249 -0.1877901229760954 
-0.06407023828629427 -0.04510786057035955 -0.1884662152762076 -0.09585541983513944 -0.03448455446208868 -0.236766392032502 -0.119588159559446 
0.0470760883082728 0 0 -0.06799192298417507 -0.03042830462280393 0 -0.0135761587641765 
-0.04214665982483769 -0.002099999616374289 -0.006113755458952846 0.03516041941410968 -0.01419732554233854 -0.008393559356387106 -0.003064389594670276 
-0.144546103886167 0.5440531133214294 -0.1962796588098033 -0.1768522939823316 -0.2490017468462197 -0.09175798467792641 -0.2461372009527124 
0.04894360643819456 0 0 -0.03392972144788685 -0.02127465022886373 0 0 
0.03428950919804458 0 0 -0.008984518395353211 0 0 0 
0.1364337854692784 -0.05688827397299084 -0.1273595142653843 -0.06290206257548672 -0.05126753967274437 -0.05877172542277809 -0.07063938132454817 
0.1874613878538982 -0.07021803175265988 -0.06273902570907967 -0.1677242490846869 -0.1083291061366322 -0.02857834181978571 -0.09328408588888584 
0 0.01979585926090338 -0.05174438232856379 -0.04842518819521101 -0.009093079519728993 -0.00344910336397985 -0.05490648183068396 
0 0 0 0.08808986976245756 0 0 -0.018719392859184 
0.09727937334059437 -0.07038806164098378 -0.07397503809337858 -0.1173893403777931 -0.1054451928098861 0.01854395399817525 -0.09001018423778236 
0.03443587976706208 0 0 -0.01030687550579304 0 0 0 
-0.1936418431980201 -0.1097178167424793 -0.2675285730078285 -0.3678938830319488 0.1827606791508851 -0.3038490236637272 -0.1454766471000797 
0.0670093903231057 -0.03065550185195136 -0.02641335007563478 -0.06314553321196702 -0.04220426794410366 -0.002418684176337488 -0.05243354804463598 
-0.1878930373047161 -0.05119707378375856 -0.02830563259838831 0.3389726223723861 -0.04079178238703304 -0.01473470549232158 -0.03918202293500089 
0 0.1933166141929707 -0.03684708372007398 -0.01411470967882149 -0.1156743544190111 0 -0.03907734087271038 
0.07077481528075301 -0.009265556013078704 -0.010633697543443 -0.07234171435130443 -0.02655106376868726 -0.006925878119252185 -0.02499239888512497 
0 -0.04804195415184469 -0.03238105102490039 -0.02436369348939052 -0.001653670463319126 0 0.09206900086350718 
0 0 -0.01796666696643917 0 -0.002784745372159642 0.04386644399799661 -0.02283913567461338 
-0.5424873541735608 0.1718978862346585 0.1496905379841963 -0.2090789328118874 -0.2060275254097003 -0.2085364080982573 -0.006488697544947466 
-0.2240078569050081 0.08656267623866713 -0.0759069461160492 0.3336822366197917 -0.1590480824681111 -0.05934333846234923 -0.0833214594368569 
0.0507306543221237 0 0 -0.01359788609832735 -0.01785134936612481 0.01421401763690123 -0.01940279809616596 
0.03433598646671181 0 0 -0.009489320364088033 0 0 0 
0.001559628519850249 -0.001720502148441818 -0.001448490629558386 0 -0.01817387092548284 0.03230864286260512 -0.01230811445831063 
-0.1720461834244565 -0.1076433639572878 -0.1350370901951847 -0.07914454531552055 0.02416986949357877 -0.09526006301578657 0.02429798076584568 
0.05063055485389031 0 0 -0.03339056402434573 0 0 -0.01051281215478136 
-0.0946578986202623 0 -0.02218391082154931 0.1021813995555104 0 0 0 
-0.03797333384345086 -0.02519065347587096 0.1786911479174826 -0.02039845213588612 -0.171171755533991 -0.01057371605673913 -0.02415505858017075 
0 0 0 0.04613045068390109 -0.04932956949988641 -0.004220152306125086 0 
-0.008582902352267496 0 0 0.04119683554736886 -0.004859301032740719 0 -0.01251520254099107 
0.1440813024106565 -0.02998938884762528 -0.09211894665860794 -0.0289670090070976 -0.01858096938650914 -0.02969317384506025 -0.0378351875228729 
-0.1062859211529547 0.2475194676163991 -0.1342301718417538 -0.09309944026406455 -0.1078721321888932 -0.09010270423707573 -0.1194780594750578 
0 0.0837300082316423 0 0 0 0 0 
0 -0.01296407936880279 -0.01702790510216287 -0.002551420712897178 0.02691641589128242 0 -0.01873595982419669 
0 0 0 -0.01532753265959358 0 -0.004585761297055423 0 
0 0.08650813799688893 0 -0.007027069547474673 0 0 0 
0.3097966618581054 0 0 -0.03043010288768726 -0.01918224031167739 -0.1781142237480844 0 
-0.02368202674141099 -0.04359590072578267 -0.06832199536475234 0.07238441586689608 -0.04062326937885746 -0.05355892606188626 -0.02791771152459441 
-0.07274975106285786 -0.04589850689418028 -0.03890065563818325 -0.07646349668154852 -0.0437149449893366 0.04893902818045334 -0.02624925647686535 
-0.2932813303582592 -0.1676594032766171 -0.1900265985065941 -0.1974915546200468 0.3792191806711355 -0.160020004753264 -0.1782453384379746 
0.03428950919804458 0 0 -0.008984518395353211 0 0 0 
0.1291671514458367 -0.1401984922861432 -0.1421391895190773 -0.1366385001706875 -0.1352379692702366 -0.1391279981986086 -0.1371243208788989 
0.04210614271137432 0 0 -0.02747445654505809 -0.01336858048259221 0 0 
0.03493384722849589 -0.1863570521719298 0.1581804135149061 -0.06156653367898714 -0.3173250451224483 -0.2032580541678672 -0.2196320510977689 
0.03486539253468138 0 0 -0.01514713221484762 -0.01392259200970105 0 0 
-0.06984972652353748 0 0 0.1698847489720275 0 0 0 
0.1291671514458367 -0.1401984922861432 -0.1421391895190773 -0.1366385001706875 -0.1352379692702366 -0.1391279981986086 -0.1371243208788989 
0.2518611802512006 0 0 0 0 -0.2009988436833322 0 
0.1841020150312647 -0.07958157515778774 -0.08746473730530981 -0.1588712603677678 -0.07367640615107919 -0.1623793881236197 -0.1359888580024234 
-0.0123948994969182 -0.01384078259699161 0.1318213222444018 0 -0.002019531687054163 0 -0.0004487517765428161 
-0.01253085090546354 0 0 0.03816329434947788 0 0 0 
0.0007836484408615972 0 0 0 0 0 0 
0.1874856017784883 -0.07029172497030053 -0.06237519534926195 -0.1660977700109922 -0.1082808990395033 -0.02850930436916189 -0.09300404238433498 
0.1540118632595319 -0.0170941621158031 -0.02248362925795858 -0.05264524678558375 -0.08921102475386401 -0.0179895766931596 -0.0531255104456967 
0.01555605415914476 -0.008886679942725463 3.469446951953614e-18 0.1066069270792571 -0.0464567528649264 -0.04808895347311913 -0.02981513783645661 
-0.04671520374047625 -0.09276218844198185 -0.07275681607624927 -0.1273045837052555 0.144088299098904 -0.1081807072618131 -0.07783148985791544 
0 0.04585944532947107 -0.02623373069485164 -0.03021327870528054 0 -0.009661671329161476 -0.04609033007158313 
-0.05381351361074219 0 0 0.04522213612106558 0 0 0 
0.00314508172578376 0 0 -0.004154563790344634 0 0 0 
-0.1796423776723944 -0.04494486514967722 -0.008964540695095655 0.2112883723382127 -0.0496940707954355 -0.01473470549232158 -0.05156092472451412 
0 0.03600474704679115 -0.05672187476386129 -0.03051579102533744 -0.003330041593753168 0 -0.04167594946045515 
0.07868468038001478 0 0 -0.00446514763127476 -0.003388509686588047 -0.04808895347311912 0 
-0.1907484018570463 0.07330348723640454 -0.09955303136975399 -0.04233987651374743 -0.1293659492223788 -0.1612302859987688 -0.1091081077946537 
0.005893980780415392 0 0 0 -0.02542921903456123 0 0 
-0.05381351361074219 0 0 0.04522213612106558 0 0 0 
-0.03200979558737861 0.07202078285090156 -0.07916646706449569 -0.1478085878637706 -0.04673202350816547 -0.06189160136536541 -0.08683678758398107 
0 0 0 0 0 0 0 
-0.007028044115383326 -0.01953127224520752 -0.01367473817457003 -0.007541277620222065 0.04548780557356501 -0.01992716648764847 -0.02938029945610418 
0 0.05324559137831044 0 -0.004533533050499915 -0.009800256967703135 0 0 
-0.06372935024781015 0.004863427554883231 -0.05914083160132234 -0.07243319281718107 -0.05634922693983691 -0.0737051498218031 -0.05079547107065163 
-0.06984972652353746 -0.0572733451275757 -0.0216365692383155 0.2648279528226579 -0.02429171075457349 0 -0.0418378300277197 
-0.006042559346383047 -0.05791761554109694 -0.05541802746990653 -0.0392933543435966 -0.004836900445348244 -0.01059240834157103 0.04645992682116814 
-0.1458670912540928 -0.07809104032739513 -0.08386586459421776 -0.09121287109221149 0.2010097726542794 -0.06529943862342844 -0.09207006985593098 
-0.04567009826327997 -0.04025251373602108 -0.01816339580840838 -0.03463628475747842 0.1207793152847501 -0.01162711998086915 -0.04362211588302817 
0.1747380630986126 0 0 -0.03143712879858454 -0.07046931066756953 0 -0.004465915755457868 
-0.1160234492596028 0 0 0.04491303022349679 -0.007871448800831165 0 0.07583309314633239 
0.1662632702692652 -0.2614020153884565 -0.1294851801831383 -0.1336365196731474 -0.2189222310852094 -0.2031225851179063 0.003887320879612883 
-0.04671520374047625 -0.09276218844198185 -0.07275681607624927 -0.1273045837052555 0.144088299098904 -0.1081807072618131 -0.07783148985791544 
-0.06633519858089199 -0.003972717398122588 -0.009627792362148963 -0.01465251947412782 0.09232138425282835 0 -0.03242724226188821 
0.1874856017784883 -0.07029172497030053 -0.06237519534926195 -0.1660977700109922 -0.1082808990395033 -0.02850930436916189 -0.09300404238433498 
-0.122904092032755 -0.05142007319008049 0.07518404614652299 -0.04197795982602257 0.1266755249002435 -5.204170427930421e-18 -0.04989238439480102 
0.04107610014222598 0 0 -0.05723245180228359 -0.03222378520992394 0 0 
0.1177524660084788 0 0 -0.05693844391857848 -0.0006317637745081055 -0.04406115738133353 -0.000885254143981506 
-0.09288628844066707 0.06297211082858724 -0.07803924298952174 -0.07197799774139807 -0.09001144104483695 -0.08770232356698718 -0.07743539158879317 
0.1887727877325323 -0.05173617573159216 -0.07675223774470555 -0.03153161335052215 -0.09223903721833045 0.02072245069792121 -0.1384120783277188 
-0.04567009826327997 -0.04025251373602108 -0.01816339580840837 0.04892840839528169 0.1207793152847501 -0.01162711998086915 -0.06137989353103588 
-0.02096332241309959 -0.02984119647410476 -0.03627700359407782 0.1013938506872689 -0.07678466755947158 -0.01727259452623172 -0.04689695734054296 
0 0.01979585926090338 -0.05174438232856379 -0.04842518819521101 -0.009093079519728993 -0.00344910336397985 -0.05490648183068396 
-0.139769314227443 0.07841173919990674 -0.1329118894975748 -0.0316871260980616 -0.141846179892217 -0.1127324308514641 -0.1759845812242892 
-0.05648796361122285 0 0 0.1181057633257071 -0.06719939772226108 0 0 
-0.2137353518611542 -0.01127535779435839 -0.08150843128895187 -0.09079793636192096 -0.1237226955274332 0.150900200289238 -0.05347032410267571 
0 0 -0.01428815580390392 0 -0.002770719534601791 0.03804042177561476 -0.01922901535008701 
-0.05644043002719331 0.07085352239109638 -0.06510109417623096 -0.109661129428633 -0.05856335584848191 -0.05935086464367136 -0.07844883073622477 
-0.08686916122494701 -0.01149907078396523 -0.03887358888418766 -0.03912095593695078 0.1372143981071229 0 -0.06418106161998127 
0 0 0 0.08808986976245756 0 0 -0.018719392859184 
0 0.02376609196927499 0 0 0 0 -0.0235878587946359 
0 0.02376609196927499 0 0 0 0 -0.0235878587946359 
-0.06655538015749109 -0.03673124143631498 -0.008633269242774404 0.05960710218851754 -0.04342230214227695 0 -0.03262401832458217 
-0.02096332241309959 -0.02984119647410476 -0.03627700359407782 0.1013938506872689 -0.07678466755947158 -0.01727259452623172 -0.04689695734054296 
0 0.05324559137831044 0 -0.004533533050499915 -0.009800256967703135 0 0 
0 0.05324559137831044 0 -0.004533533050499915 -0.009800256967703135 0 0 
-0.02368202674141099 -0.04359590072578267 -0.06832199536475234 0.07238441586689608 -0.04062326937885746 -0.05355892606188626 -0.02791771152459441 
-0.0123948994969182 -0.01384078259699161 0.1318213222444018 0 -0.002019531687054163 0 -0.0004487517765428161 
0 0.05324559137831044 0 -0.004533533050499915 -0.009800256967703135 0 0 
-0.07335535658082208 -0.002122164954877733 -0.05910211160673932 -0.006869006646345353 -0.002879135033511519 0.0563397033799832 -0.03285549131557707 
0 -0.01296407936880279 -0.01702790510216287 -0.002551420712897178 0.02691641589128242 0 -0.01873595982419669 
0.1439316196963252 0 0 0 0 -0.06507353583495271 0 
-0.09137388684190267 -0.06756481343306343 -0.0723002934813059 -0.04539077362818263 -0.07816852879239489 -0.08244985481442796 0.07489462465599593 
-0.1404820219384194 -0.2112059278627927 -0.1435665253798783 -0.1711218420573486 -0.1916231167445599 0.1560550620707299 -0.0328488488902268 
-0.126153712339667 -0.03153328418971704 -0.001475006272152845 0.1286634635339611 -0.01539166989695096 0 -0.0391625288334179 
-0.008582902352267496 0 0 0.04119683554736886 -0.004859301032740719 0 -0.01251520254099107 
-0.02875110265707021 -0.127192654368284 -0.09854205666019318 0.05678768612370194 -0.1070101040642177 -0.09011090880004137 -0.1229494821159101 
0 -0.04103874629173399 -0.02133222823938695 -0.1291197230201878 0.2083987648487505 0 -0.03253490890816502 
0.1271976497298023 -0.07042275974448843 -0.06241625428730079 -0.1170474750366801 -0.1055251540915076 -0.02276672520329023 -0.09023846650082425 
0 0 0 0.08808986976245756 0 0 -0.018719392859184 
-0.0123948994969182 -0.01384078259699161 0.1318213222444018 0 -0.002019531687054163 0 -0.0004487517765428161 
0 0.05324559137831044 0 -0.004533533050499915 -0.009800256967703135 0 0 
-0.03595417862220624 -0.03772747857857825 0.1384127856522988 -0.04320885808202302 -0.01105510881686013 -0.06520815230828853 -0.07187829821534537 
0 0 0 0 0 0 0.05950715636585725 
0 0.0837300082316423 0 0 0 0 0 
-0.08076706185622165 -0.1021726495579029 -0.1529806470572216 -0.1146458196924859 0.1524927962389877 -0.1256294444823063 -0.1352947007620786 
0 0.0837300082316423 0 0 0 0 0 
-0.06655538015749109 -0.03673124143631498 -0.008633269242774404 0.05960710218851754 -0.04342230214227695 0 -0.03262401832458217 
0 0.09750800377776811 0 -0.05027871186701958 -0.008420014468529715 -0.008014555063485527 -0.05159268578924583 
-0.09288628844066707 0.06297211082858724 -0.07803924298952174 -0.07197799774139807 -0.09001144104483695 -0.08770232356698718 -0.07743539158879317 
-0.0104330710160116 0.1208553445737033 0 -0.01353082303593739 0 0 -0.01511879294461618 
-0.2065267741536106 -0.07572286807825311 -0.09258217234488821 0.2236866537838256 -0.1563000884760282 -0.08353151389613755 0.03954167579441233 
-0.0104330710160116 0.1208553445737033 0 -0.01353082303593739 0 0 -0.01511879294461618 
0.1384298705298184 0 0 0 -0.03699933340771858 -0.007465632634555612 0 
0 0.09750800377776811 0 -0.05027871186701958 -0.008420014468529715 -0.008014555063485527 -0.05159268578924583 
-0.07354394733102497 0.03202170092028987 -0.06646243002818152 -0.06458878393803121 -0.07086006120525545 -0.07868659983336546 -0.0637153329185641 
-0.07354394733102497 0.03202170092028987 -0.06646243002818152 -0.06458878393803121 -0.07086006120525545 -0.07868659983336546 -0.0637153329185641 
0 0 0 0 0 0 0 
0 -0.01611528340231709 0 0.01611169388989855 0 0 -7.625730518611364e-05 
-0.06933271608781644 0.01729449024786524 -0.06566230027449879 -0.104852107456961 -0.06983752925094783 -0.1229221382020938 0.006251118024506207 
-0.07354394733102497 0.03202170092028987 -0.06646243002818152 -0.06458878393803121 -0.07086006120525545 -0.07868659983336546 -0.0637153329185641 
-0.1659275559448496 -0.1128985252464271 0.03393329592419213 -0.1070052776020788 0.03498207169188041 -0.1211049912931245 0.07799982120822141 
-0.03595417862220624 -0.03772747857857825 0.1384127856522988 -0.04320885808202302 -0.01105510881686013 -0.06520815230828853 -0.07187829821534537 
-0.01002580692877535 -0.06241845191457523 0.1969575122646664 -0.06383198505171117 -0.0008965267712488264 -0.05532704077658096 -0.06446987955745082 
-0.03797333384345086 -0.02519065347587096 0.1786911479174826 -0.02039845213588612 -0.171171755533991 -0.01057371605673913 -0.02415505858017075 
-0.05691250726653783 -0.05345028728247125 -0.03460873229298688 -0.02806198540829839 0.07063165759160682 -0.04369026836226327 -0.05592309102540471 
-0.1622831416601337 -0.06190761370274301 0.107492825649777 -0.09100705713260426 0.002910735799836759 -0.013257432662969 -0.07513688167303091 
-0.04214665982483769 -0.002099999616374289 -0.006113755458952846 0.03516041941410968 -0.01419732554233854 -0.008393559356387106 -0.003064389594670276 
-0.03797333384345086 -0.02519065347587096 0.1786911479174826 -0.02039845213588612 -0.171171755533991 -0.01057371605673913 -0.02415505858017075 
-0.1259464436141631 -0.05511653350572945 -0.04536195076996851 0.1852758763278308 -0.07264989542731243 -0.01073692589966425 -0.09246189785483243 
0.03486539253468138 0 0 -0.01514713221484762 -0.01392259200970105 0 0 
-0.1111111111111111 -0.1111111111111111 0.1111111111111111 -0.1111111111111111 -0.1111111111111111 -0.1111111111111111 -0.1111111111111111 
-0.1111111111111111 -0.1111111111111111 0.1111111111111111 -0.1111111111111111 -0.1111111111111111 -0.1111111111111111 -0.1111111111111111 
-0.1111111111111111 -0.1111111111111111 0.1111111111111111 -0.1111111111111111 -0.1111111111111111 -0.1111111111111111 -0.1111111111111111 
-0.1111111111111111 -0.1111111111111111 0.1111111111111111 -0.1111111111111111 -0.1111111111111111 -0.1111111111111111 -0.1111111111111111 
-0.1181287296592706 -0.05375625284401322 -0.06990726567831879 -0.01504495369372833 0.04322748923184011 -0.04761188767080892 -0.06087636379413204 
-0.02525574639312184 -0.09780319609415378 0.1591705197378819 -0.08401575589553037 -0.03876201016194808 -0.06478977399662876 -0.1192093377103324 
-0.02525574639312184 -0.09780319609415378 0.1591705197378819 -0.08401575589553037 -0.03876201016194808 -0.06478977399662876 -0.1192093377103324 
0.07147776664791169 -0.01965376088031069 -0.05003236340324778 -0.02122873128801816 -0.04640830585508637 -0.04173831508219093 -0.01571897904095327 
-0.4552262332689129 -0.09248214340415652 -0.07802316306693566 0.4629520348592581 -0.1265830945633744 -0.03221955996690986 -0.1334025346195459 
-0.06584063219960275 0 -0.04162758701872735 0 -0.04242604867770719 0 0.197454575429988 
0 0 0 0.08808986976245756 0 0 -0.018719392859184 
-0.1986180739867102 -0.1325895351105751 0.04416296093181955 -0.1147607448556866 -0.07493023626950202 0.08769955538798474 -0.1505002304278781 
-0.04597314771060817 0 0.2038966513091787 -0.02522970429942738 -0.004604051341509523 0 -0.04216395790549362 
-0.1526176294391765 -0.05775466132703341 -0.05237358791673855 -0.09053049839663341 0.1677603429896642 -0.02463455944541016 -0.07164682977975284 
-0.04597314771060817 0 0.2038966513091787 -0.02522970429942738 -0.004604051341509523 0 -0.04216395790549362 
-0.5148228480049755 -0.3510736309053124 -0.03249103792936434 -0.3985686107521971 0.1824609300821648 -0.3559965594899349 -0.08996086406769577 
-0.05057175666933019 -0.0358290367439393 -0.02227128778872258 -0.0212581919503907 0.02959224098849743 -0.02571183926694141 -0.02941597919401133 
-0.01026994214161939 0 -0.02426461065275381 -0.03094359400590238 -0.004169538437009962 0.07642502726924905 -0.005358585292209644 
-0.1062859211529547 0.3082919258243908 -0.169960674033563 -0.1686738050906005 -0.115231654255126 -0.1122432195660664 -0.2034161678922977 
0.03466576960604198 0 0 -0.01118224784572642 -0.004644374657631557 0 0 
-0.01002580692877535 -0.06241845191457523 0.1969575122646664 -0.06383198505171117 -0.0008965267712488264 -0.05532704077658096 -0.06446987955745082 
-0.03595417862220624 -0.03772747857857825 0.1384127856522988 -0.04320885808202302 -0.01105510881686013 -0.06520815230828853 -0.07187829821534537 
-0.007028044115383326 -0.01953127224520752 -0.01367473817457003 -0.007541277620222065 0.04548780557356501 -0.01992716648764847 -0.02938029945610418 
-0.01002580692877535 -0.06241845191457523 0.1969575122646664 -0.06383198505171117 -0.0008965267712488264 -0.05532704077658096 -0.06446987955745082 
-0.1501857860841489 -0.01762044953095136 -0.05910211160673932 -0.006869006646345353 -0.02570068277125937 0.1432204056564049 -0.06880888084415766 
-0.03536787721958158 -0.04431911558818558 -0.06270452760430749 -0.04319224374743951 0.0563251822619403 -0.0458380382554636 -0.06457288688788013 
0 0 0 0 0 0 0 
-0.0123948994969182 -0.01384078259699161 0.1318213222444018 0 -0.002019531687054163 0 -0.0004487517765428161 
0.1271976497298023 -0.07042275974448843 -0.06241625428730079 -0.1170474750366801 -0.1055251540915076 -0.02276672520329023 -0.09023846650082425 
-0.0123948994969182 -0.01384078259699161 0.1318213222444018 0 -0.002019531687054163 0 -0.0004487517765428161 
-0.2819099209087361 -0.06334801670718798 -0.05171376958546468 0.3102331544361454 -0.09603037072755034 -0.02408867106162853 -0.08455143366775369 
-0.114110718101212 -0.04164151968829718 -0.01771954755466117 -0.04148876372013303 0.1281337953344047 0 -0.04936008167640828 
0 -0.04103874629173399 -0.02133222823938695 -0.1291197230201878 0.2083987648487505 0 -0.03253490890816502 
-0.4824058678622786 -0.2757071281466693 -0.2089565107252881 0.7648812066320665 -0.1135158632534628 -0.1421524580457236 -0.2729046225531104 
-0.231137323222563 -0.05234535417800574 -0.04758287366753666 -0.1201932452210433 -0.1559588413326899 -0.02411898778134732 0.2973796756138887 
0 -0.01611528340231709 0 0.01611169388989855 0 0 -7.625730518611364e-05 
-0.08417198273721883 -0.1012249591499253 -0.1019113052870265 -0.09602898226725901 0.1076485444421326 -0.09214633555140112 -0.08740398424644455 
-0.1648748314287733 -0.0532715347180188 -0.0332661470315973 0.2451982807339882 -0.09341036681051579 -0.009166220047856811 -0.0777672558006178 
-0.1909961679416928 -0.06334801670718798 -0.0704353043416299 0.2009180073367184 -0.09182392972797042 -0.02408867106162853 -0.0788987846720192 
-0.09923620928757436 -0.09915117103158343 -0.08640366116079598 -0.06405875028966221 -0.1422765327656899 -0.07757529110386686 0.1019456871663593 
-0.04028992754676698 0 0 0 0 0.0408904373238578 0 
-0.1127323912892021 -0.04006182872281568 -0.03299327645483393 -0.04197795982602257 0.1283328253057809 0 -0.04952412253190603 
-0.0946578986202623 0 -0.02218391082154931 0.1021813995555104 0 0 0 
-0.03595417862220624 -0.03772747857857825 0.1384127856522988 -0.04320885808202302 -0.01105510881686013 -0.06520815230828853 -0.07187829821534537 
0 0 0 0.1028703182595079 0 0 0 
0 0.09184964110932339 -0.01587578110718176 0 -0.08293939767162783 0 -0.02045176952250845 
-0.07993128864891592 -0.0779166736702272 -0.08970732218616227 -0.08144040260796136 0.1222613136832507 -0.08137151106464197 -0.1332789855530078 
-0.07500418311462671 -0.02039980244022574 -0.03183701935453349 0 -0.07414313738518298 -0.009166220047856811 -0.03397149243676651 
0.2383613827950753 -0.05688827397299084 -0.1273595142653843 -0.06835108937097868 -0.05633701972530489 -0.1406852463991921 -0.07063938132454817 
-0.2342002447262058 -0.05095227535850582 -0.0332661470315973 0.343284532046822 -0.08905606478165919 -0.009166220047856811 -0.07191590997334976 
-0.05475267388297411 0 0 0 0.07391582647226989 0 -0.00766755397383187 
-0.2214012034867561 -0.1508113937931181 -0.1028867468955881 0.3211027426904252 -0.1046654987455276 -0.08686729183710623 -0.1541503038174498 
-0.04650236813139423 -0.1212963659246797 -0.1015061469248781 0.08895020599203028 -0.09025895728866103 -0.08686729183710623 -0.117494333479486 
-0.1104484295025782 -0.196653651738025 -0.1271582540177119 -0.1833865082331467 -0.1879989394465693 -0.1529286532176375 0.2980319924346356 
-0.01253085090546354 0 0 0.03816329434947788 0 0 0 
-0.1863921443109195 -0.1568485169543876 -0.1015061469248781 0.2820868860053019 -0.1061349492673098 -0.08686729183710623 -0.1493231749881561 
-0.06955783887447919 -0.0302828890701381 -0.01932389260068735 -0.006750190636933337 -0.02651360065343681 0.05813859431833437 -0.0540562096187164 
-0.05648796361122285 0 0 0.1181057633257071 -0.06719939772226108 0 0 
-0.04685718696138065 -0.03576548661159022 -0.04221033334770817 -0.06420348082148955 -0.0318875147940393 0.03889939308843685 -0.03189141037335894 
-0.05648796361122285 0 0 0.168832594198765 -0.06719939772226108 0 0 
-0.05089116581064252 -0.03711426258768835 -0.04604230424955667 -0.0717487852722716 -0.03258675318321895 0.04158904108959845 -0.03232520373264471 
0 0 0 0.1028703182595079 0 0 0 
-0.01253085090546354 0 0 0.03816329434947788 0 0 0 
0 0 0 0.05092595023589721 -0.0749345541385049 0 0 
-0.0325079462188616 0 0 0.1174837177664362 0 0 0 
-0.02368202674141099 -0.04359590072578267 -0.06832199536475234 0.07238441586689608 -0.04062326937885746 -0.05355892606188626 -0.02791771152459441 
-0.09177100703637241 -0.05824112228428111 -0.05220847039507227 -0.03347773172092028 0.1524476200519737 0 -0.04817629170065748 
-0.05343962870231183 -0.05197900325104875 -0.021674589116703 0.05918962113368913 -0.04854501030241325 -0.05842406096014768 -0.001825015887635539 
-0.08686916122494701 -0.01149907078396523 -0.03887358888418766 -0.03912095593695078 0.1372143981071229 0 -0.06418106161998127 
-0.02096332241309959 -0.02984119647410476 -0.03627700359407782 0.1013938506872689 -0.07678466755947158 -0.01727259452623172 -0.04689695734054296 
-0.0325079462188616 0 0 0.1174837177664362 0 0 0 
0 0 0 0.08808986976245756 0 0 -0.018719392859184 
-0.1201044594058982 -0.1769274345875478 -0.2643592638853965 -0.1584342258835833 0.19768528614992 -0.1641650434781889 -0.1856206326554617 
0 0 0 -0.009700693226546646 -0.006833694630913689 0 0 
-0.0586210718205375 0.03914805545942367 -0.06251887491269428 -0.01792389858197006 0.002003067588922921 -1.537525180673186e-05 -0.03223939181975405 
0 0 0 0.06023596514714324 -0.04932956949988641 0 0 
-0.08698859549367972 -0.05101297306552131 -0.02863219556276665 -0.02368559642135769 -0.02640115778050769 8.673617379884035e-19 0.2385783016228888 
-0.02368202674141099 -0.04359590072578267 -0.06832199536475234 0.07238441586689608 -0.04062326937885746 -0.05355892606188626 -0.02791771152459441 
0.03466576960604198 0 0 -0.01118224784572642 -0.004644374657631557 0 0 
-0.0551272770507019 -0.009321392398627873 0 0.0484167046562107 -0.02688503421474313 0 -0.01926585169503905 
-0.01253085090546354 0 0 0.03816329434947788 0 0 0 
-0.0551272770507019 -0.009321392398627873 0 0.0484167046562107 -0.02688503421474313 0 -0.01926585169503905 
0.02907111135030645 -0.02043638437996413 0 -0.01421063503500432 -0.04692497286589273 0 -0.0005673009072270612 
-0.1174261237357618 -0.09632241447709054 0.1673683769336941 -0.098048328311308 -0.1824075277955471 -0.1161851862816692 -0.1715996727287002 
-0.0566726744992261 0 0 0.08918228199047709 -0.004751929209303498 0 -0.006385680406655746 
0 -0.02926826253404205 -0.02502067040280127 -0.0002987107911137548 0.05142900661666647 -1.618832670375463e-05 -0.01302833936958139 
0 0 0 0 0 0 0 
-0.05381351361074219 0 0 0.04522213612106558 0 0 0 
-0.05057175666933019 -0.0358290367439393 -0.02227128778872258 -0.0212581919503907 0.02959224098849743 -0.02571183926694141 -0.02941597919401133 
-0.09269970015308902 -0.02544825648430247 -0.021491145716455 -0.04887809578505767 0.1219112957675706 0 -0.02725565855379717 
-0.06984972652353748 0 0 0.1698847489720275 0 0 0 
-0.06655538015749109 -0.03673124143631498 -0.008633269242774404 0.05960710218851754 -0.04342230214227695 0 -0.03262401832458217 
-0.02096332241309959 -0.02984119647410476 -0.03627700359407782 0.1013938506872689 -0.07678466755947158 -0.01727259452623172 -0.04689695734054296 
-0.02096332241309959 -0.02984119647410476 -0.03627700359407782 0.1013938506872689 -0.07678466755947158 -0.01727259452623172 -0.04689695734054296 
0 0.05324559137831044 0 -0.004533533050499915 -0.009800256967703135 0 0 
-0.04887279369593718 -0.04025453652608033 -0.02755448016038415 -0.03666563461604971 0.05645157183427911 -0.01866014466088649 -0.02595241650944845 
-0.0586210718205375 0.06504971762979023 -0.03875489270154411 -0.01764019083905079 -0.02954231988671133 0 -0.01986541382334925 
0 -0.01611528340231709 0 0.01611169388989855 0 0 -7.625730518611364e-05 
-0.1237022183074989 0 0 -0.02727615452177231 0.154695994236744 -0.004935412650560661 -0.01299235853477625 
-0.03554101581047635 0.09690014546401937 -0.007342693542278572 0 -0.04088729954014589 0 -0.01481568240587349 
-0.01190138963321429 -0.04885581910093266 -0.09737064870616265 -0.05104438585310829 0.06062710293323029 -0.04988906957267077 -0.07128252396322389 
0 -0.01611528340231709 0 0.01611169388989855 0 0 -7.625730518611364e-05 
-0.05009888073875192 -0.03239700455853298 -0.02673102253002529 -0.03158469688706911 0.09875321486320408 -0.03571153103635459 -0.02277551111516512 
-0.02794327234882093 -0.09822031528501479 -0.09871364355694068 -0.132079477909254 -0.1162998861084883 -0.08486853899076545 -0.01793287692067441 
-0.06633519858089199 -0.003972717398122588 -0.009627792362148963 -0.01465251947412782 0.09232138425282835 0 -0.03242724226188821 
-0.1856154201290572 -0.01518649145485904 -0.05344728169461131 -0.07000193383399719 0.2589338212013631 0 0.00304852373167287 
-0.03914073903276605 0 0 -0.01041612183694682 0.1448152878409148 0 -0.04380044200106066 
-0.04887279369593718 -0.04025453652608033 -0.02755448016038415 -0.03666563461604971 0.05645157183427911 -0.01866014466088649 -0.02595241650944845 
-0.006042559346383047 -0.05791761554109694 -0.05541802746990653 -0.0392933543435966 -0.004836900445348244 -0.01059240834157103 0.04645992682116814 
-0.08417997274310733 -0.06756481343306343 -0.0723002934813059 -0.07992064288524969 -0.07409561816438466 -0.08244985481442796 0.03450067112396157 
-0.04065326100846042 0.06280133713383342 -0.02753380723805931 -0.0102437389510616 -0.04276692502512019 0 -0.01468483821162378 
-0.04887279369593718 -0.04025453652608033 -0.02755448016038415 -0.03666563461604971 0.05645157183427911 -0.01866014466088649 -0.02595241650944845 
-0.0873120113018174 -0.07948898268814517 -0.0842700635137161 -0.09214857082008854 -0.08946865811188363 -0.09289099382846369 0.03413422892558104 
-0.007028044115383326 -0.01953127224520752 -0.01367473817457003 -0.007541277620222065 0.04548780557356501 -0.01992716648764847 -0.02938029945610418 
-0.07160137940010014 -0.0160093932339517 -0.05283649640565891 -0.006181434439743622 -0.005140604205167421 -0.01633389982659569 0.1733721315718085 
-0.06633519858089199 -0.006016027854390813 -0.009627792362148967 -0.01465251947412782 0.1109604735575931 0 -0.03242724226188821 
-0.01190138963321429 -0.04885581910093266 -0.09737064870616265 -0.05104438585310829 0.06062710293323029 -0.04988906957267077 -0.07128252396322389 
0 0.09402958477478433 0 0 -0.003027271584032027 0 0 
0 0.05324559137831044 0 -0.004533533050499915 -0.009800256967703135 0 0 
0 -0.01611528340231709 0 0.01611169388989855 0 0 -7.625730518611364e-05 
-0.1362679700875134 -0.1161470896711839 -0.1215553429424786 -0.1099083128239109 0.1572044576422 -0.110415328551947 -0.1028442237427738 
-0.03601750038843192 -0.05746530919410708 -0.04162629006638787 -0.02876881717797682 0.05461065540433822 -0.03377133567152971 -0.04352475403551577 
-0.04567009826327997 -0.04025251373602108 -0.01816339580840838 -0.03463628475747842 0.1207793152847501 -0.01162711998086915 -0.04362211588302817 
-0.140157037588823 -0.1092392383793949 -0.09414707588250905 -0.1030261761803854 -0.1013477727980852 0.1483230046019209 -0.09145349956175458 
-0.1291646517801795 -0.1271002741266723 -0.1199284677632576 -0.03387564452437512 -0.1055160204521516 -0.1044351418346484 0.1067998247606957 
-0.09697691861509646 -0.08854629711190207 0.1139828405545483 -0.06192808658552106 -0.1122166516378285 -0.0504473101311813 -0.03672345405221471 
-0.1283814660914703 -0.1282497044635261 -0.08803090745834911 -0.08290654624610537 0.1351122701124664 -0.07485418181219425 -0.09489892521853742 
0 0 0 0 0 0 0 
-0.09177100703637241 -0.05824112228428111 -0.05220847039507227 -0.03347773172092028 0.1524476200519737 0 -0.04817629170065748 
-0.09177100703637241 -0.05824112228428111 -0.05220847039507227 -0.03347773172092028 0.1524476200519737 0 -0.04817629170065748 
0 -0.04103874629173399 -0.02133222823938695 -0.1291197230201878 0.2083987648487505 0 -0.03253490890816502 
-0.08417198273721883 -0.1012249591499253 -0.1019113052870265 -0.09602898226725901 0.1076485444421326 -0.09214633555140112 -0.08740398424644455 
-0.04997246812594175 0 0 -0.172043820865747 0.1669895927443346 0 -0.0008921143024692771 
0.0690624309378593 -0.02043638437996413 0 -0.04030515952563031 -0.05962210302516626 0 -0.0005673009072270612 
-0.07993128864891592 -0.0779166736702272 -0.08970732218616227 -0.08144040260796136 0.1222613136832507 -0.08137151106464197 -0.1332789855530078 
-0.04997246812594175 0 0 -0.172043820865747 0.1669895927443346 0 -0.0008921143024692771 
